Language model created by QuickLM on Tue Aug  1 12:53:03 EDT 2017
Copyright (c) 1996-2010 Carnegie Mellon University and Alexander I. Rudnicky

The model is in standard ARPA format, designed by Doug Paul while he was at MITRE.

The code that was used to produce this language model is available in Open Source.
Please visit http://www.speech.cs.cmu.edu/tools/ for more information

The (fixed) discount mass is 0.5. The backoffs are computed using the ratio method.
This model based on a corpus of 136 sentences and 86 words

\data\
ngram 1=86
ngram 2=213
ngram 3=265

\1-grams:
-1.0206 </s> -0.3010
-1.0206 <s> -0.2084
-2.6770 ACCESS -0.2459
-2.6770 CALCULATOR -0.2459
-2.3090 CAN -0.2989
-2.6770 CLEAN -0.3001
-2.3760 COMPUTER -0.2442
-2.6770 CONFIGURATION -0.2459
-2.3760 CURRENT -0.2955
-2.6770 DATE -0.2562
-2.1999 DATE? -0.2575
-2.6770 DAY -0.2562
-2.8531 DAY? -0.2575
-2.6770 DEVICE -0.2992
-2.6770 DISC -0.3001
-2.8531 DISK -0.3004
-2.6770 EXCEL -0.2459
-2.6770 EXPLORER -0.2459
-2.6770 FACEBOOK -0.2459
-2.6770 FIREWALL -0.2459
-2.6770 FLOW -0.2459
-2.6770 FREE -0.2995
-2.6770 GMAIL -0.2459
-2.6770 GOOGLE -0.2459
-2.8531 HARD -0.3004
-3.1541 I -0.3007
-2.6770 INFOPATH -0.2459
-2.6770 INFORMATION -0.2459
-2.6770 INTERNET -0.3001
-2.3090 IS -0.2915
-2.5521 IS? -0.2575
-2.5521 IT -0.2998
-2.6770 KEYBOARD -0.2459
-3.1541 KNOW -0.2977
-2.3760 MANAGER -0.2459
-2.1127 ME -0.2899
-2.6770 MEDIA -0.2568
-2.6770 MEMORY -0.2986
-1.7228 MICROSOFT -0.2918
-2.1999 MY -0.2967
-2.6770 NOTEPAD -0.2459
-2.8531 OF -0.2983
-2.6770 ON -0.3001
-2.6770 ONENOTE -0.2459
-1.3548 OPEN -0.2688
-2.6770 OUTLOOK -0.2459
-2.6770 OVER -0.3001
-2.6770 PAINT -0.2459
-2.6770 PICTURE -0.2992
-2.8531 PLAYER -0.2459
-1.6226 PLEASE -0.2534
-2.6770 POINT -0.2459
-2.3760 POWER -0.2992
-2.6770 PUBLISHER -0.2459
-2.4551 RAM -0.2989
-2.6770 RECORDER -0.2459
-2.6770 SCREEN -0.3001
-2.6770 SHELL -0.2459
-2.8531 SIZE -0.2575
-3.1541 SIZE. -0.2575
-2.3090 SIZE? -0.2575
-2.6770 SNIPPING -0.3001
-2.6770 SOUND -0.3001
-2.4551 SPACE -0.2568
-2.6770 STACK -0.3001
-2.3760 SYSTEM -0.2992
-2.0749 TELL -0.2943
-2.1127 THE -0.2921
-3.1541 TIME -0.2998
-2.3090 TIME? -0.2575
-3.1541 TO -0.3007
-3.1541 TODAY -0.2983
-2.3760 TODAY'S -0.2974
-2.6770 TOOL -0.2459
-2.4551 TOTAL -0.2980
-2.6770 TWITTER -0.2459
-2.6770 UP -0.2459
-2.6770 VLC -0.2459
-3.1541 WANT -0.3007
-2.1541 WHAT -0.2977
-3.1541 WHICH -0.3001
-2.1999 WINDOWS -0.2974
-2.6770 WORD -0.2459
-2.6770 WORDPAD -0.2459
-2.3090 YOU -0.2974
-2.6770 YOUTUBE -0.2459

\2-grams:
-2.4346 <s> CALCULATOR -0.1249
-1.5895 <s> CAN 0.0000
-2.4346 <s> CURRENT -0.1249
-2.4346 <s> DATE -0.2218
-2.4346 <s> DAY -0.1249
-2.4346 <s> DEVICE 0.0000
-2.4346 <s> DISC 0.0000
-2.4346 <s> FACEBOOK -0.1249
-2.4346 <s> FREE 0.0000
-2.4346 <s> GMAIL -0.1249
-2.4346 <s> GOOGLE -0.1249
-2.4346 <s> HARD 0.0000
-2.4346 <s> I 0.0000
-2.4346 <s> INTERNET 0.0000
-2.4346 <s> MEMORY -0.2218
-1.4803 <s> MICROSOFT 0.0000
-2.1335 <s> MY -0.1249
-2.4346 <s> NOTEPAD -0.1249
-2.1335 <s> ON 0.0000
-0.6352 <s> OPEN 0.0000
-2.4346 <s> PAINT -0.1249
-2.1335 <s> PLEASE -0.2881
-2.4346 <s> RAM 0.0000
-2.4346 <s> SNIPPING 0.0000
-2.4346 <s> SOUND 0.0000
-2.4346 <s> STACK 0.0000
-1.9574 <s> SYSTEM 0.0000
-1.9574 <s> TELL -0.0348
-2.4346 <s> TIME? 0.0000
-2.4346 <s> TODAY 0.0000
-2.1335 <s> TODAY'S 0.0000
-1.7356 <s> TOTAL 0.0000
-2.4346 <s> TWITTER -0.1249
-2.4346 <s> VLC -0.1249
-1.4803 <s> WHAT 0.0000
-2.4346 <s> WHICH 0.0000
-2.1335 <s> WINDOWS -0.1249
-2.4346 <s> WORDPAD -0.1249
-2.4346 <s> YOUTUBE -0.1249
-0.4771 ACCESS </s> -0.3010
-0.7782 ACCESS PLEASE -0.0248
-0.4771 CALCULATOR </s> -0.3010
-0.7782 CALCULATOR PLEASE -0.0248
-0.3010 CAN YOU 0.0000
-0.3010 CLEAN UP 0.0000
-0.4771 COMPUTER </s> -0.3010
-1.0792 COMPUTER PLEASE -0.0248
-1.0792 COMPUTER RAM 0.0000
-0.4771 CONFIGURATION </s> -0.3010
-0.7782 CONFIGURATION PLEASE -0.0248
-1.0792 CURRENT DATE? 0.0000
-1.0792 CURRENT DAY? 0.0000
-0.4771 CURRENT TIME? 0.0000
-0.7782 DATE </s> -0.3010
-0.4771 DATE IT 0.0000
-0.3010 DATE? </s> -0.3010
-0.4771 DAY </s> -0.3010
-0.7782 DAY IT 0.0000
-0.3010 DAY? </s> -0.3010
-0.3010 DEVICE MANAGER 0.0000
-0.3010 DISC CLEAN 0.0000
-0.3010 DISK SIZE 0.0000
-0.4771 EXCEL </s> -0.3010
-0.7782 EXCEL PLEASE -0.0248
-0.4771 EXPLORER </s> -0.3010
-0.7782 EXPLORER PLEASE -0.0248
-0.4771 FACEBOOK </s> -0.3010
-0.7782 FACEBOOK PLEASE -0.0248
-0.4771 FIREWALL </s> -0.3010
-0.7782 FIREWALL PLEASE -0.0248
-0.4771 FLOW </s> -0.3010
-0.7782 FLOW PLEASE -0.0248
-0.3010 FREE SPACE 0.0000
-0.4771 GMAIL </s> -0.3010
-0.7782 GMAIL PLEASE -0.0248
-0.4771 GOOGLE </s> -0.3010
-0.7782 GOOGLE PLEASE -0.0248
-0.3010 HARD DISK 0.0000
-0.3010 I WANT 0.0000
-0.4771 INFOPATH </s> -0.3010
-0.7782 INFOPATH PLEASE -0.0248
-0.4771 INFORMATION </s> -0.3010
-0.7782 INFORMATION PLEASE -0.0248
-0.3010 INTERNET EXPLORER 0.0000
-0.8451 IS MY -0.2218
-1.1461 IS RAM 0.0000
-0.8451 IS THE -0.1347
-0.8451 IS TODAY'S -0.0669
-0.3010 IS? </s> -0.3010
-0.3010 IT IS? 0.0000
-0.4771 KEYBOARD </s> -0.3010
-0.7782 KEYBOARD PLEASE -0.0248
-0.3010 KNOW THE -0.2596
-0.4771 MANAGER </s> -0.3010
-0.7782 MANAGER PLEASE -0.0248
-1.3424 ME MY -0.2499
-0.4973 ME THE -0.1047
-1.0414 ME TODAY'S -0.0669
-1.3424 ME WHAT -0.1139
-0.7782 MEDIA </s> -0.3010
-0.4771 MEDIA PLAYER 0.0000
-0.7782 MEMORY SIZE. 0.0000
-0.4771 MEMORY SIZE? 0.0000
-1.2553 MICROSOFT ACCESS 0.0000
-1.2553 MICROSOFT EXCEL 0.0000
-1.2553 MICROSOFT INFOPATH 0.0000
-1.2553 MICROSOFT ONENOTE 0.0000
-1.2553 MICROSOFT OUTLOOK 0.0000
-1.2553 MICROSOFT PICTURE 0.0000
-1.2553 MICROSOFT POWER -0.1761
-1.2553 MICROSOFT PUBLISHER 0.0000
-1.2553 MICROSOFT WORD 0.0000
-0.4771 MY COMPUTER 0.0000
-0.9542 MY MEMORY -0.1249
-1.2553 MY RAM 0.0000
-0.4771 NOTEPAD </s> -0.3010
-0.7782 NOTEPAD PLEASE -0.0248
-0.3010 OF MY -0.1249
-0.3010 ON SCREEN 0.0000
-0.4771 ONENOTE </s> -0.3010
-0.7782 ONENOTE PLEASE -0.0248
-1.7993 OPEN CALCULATOR 0.0000
-1.7993 OPEN DEVICE 0.0000
-1.7993 OPEN DISC 0.0000
-1.7993 OPEN FACEBOOK 0.0000
-1.7993 OPEN GMAIL 0.0000
-1.7993 OPEN GOOGLE 0.0000
-1.7993 OPEN INTERNET 0.0000
-0.8451 OPEN MICROSOFT 0.0000
-1.7993 OPEN MY -0.1249
-1.7993 OPEN NOTEPAD 0.0000
-2.1004 OPEN ON 0.0000
-1.7993 OPEN PAINT 0.0000
-1.7993 OPEN SNIPPING 0.0000
-1.7993 OPEN SOUND 0.0000
-1.7993 OPEN STACK 0.0000
-1.6232 OPEN SYSTEM 0.0000
-1.7993 OPEN TWITTER 0.0000
-1.7993 OPEN VLC 0.0000
-1.2553 OPEN WINDOWS 0.0000
-1.7993 OPEN WORDPAD 0.0000
-1.7993 OPEN YOUTUBE 0.0000
-0.4771 OUTLOOK </s> -0.3010
-0.7782 OUTLOOK PLEASE -0.0248
-0.3010 OVER FLOW 0.0000
-0.4771 PAINT </s> -0.3010
-0.7782 PAINT PLEASE -0.0248
-0.3010 PICTURE MANAGER 0.0000
-0.6021 PLAYER </s> -0.3010
-0.6021 PLAYER PLEASE -0.0248
-0.3274 PLEASE </s> -0.3010
-1.5315 PLEASE TELL -0.0348
-0.4771 POINT </s> -0.3010
-0.7782 POINT PLEASE -0.0248
-0.6021 POWER POINT 0.0000
-0.6021 POWER SHELL 0.0000
-0.4771 PUBLISHER </s> -0.3010
-0.7782 PUBLISHER PLEASE -0.0248
-0.3010 RAM SIZE? 0.0000
-0.4771 RECORDER </s> -0.3010
-0.7782 RECORDER PLEASE -0.0248
-0.3010 SCREEN KEYBOARD 0.0000
-0.4771 SHELL </s> -0.3010
-0.7782 SHELL PLEASE -0.0248
-0.3010 SIZE </s> -0.3010
-0.3010 SIZE. </s> -0.3010
-0.3010 SIZE? </s> -0.3010
-0.3010 SNIPPING TOOL 0.0000
-0.3010 SOUND RECORDER 0.0000
-0.5229 SPACE </s> -0.3010
-0.6990 SPACE OF 0.0000
-0.3010 STACK OVER 0.0000
-0.6021 SYSTEM CONFIGURATION 0.0000
-0.6021 SYSTEM INFORMATION 0.0000
-0.3388 TELL ME 0.0000
-1.3802 TELL THE -0.2808
-0.6435 THE CURRENT 0.0000
-1.0414 THE DATE? 0.0000
-1.3424 THE DAY? 0.0000
-1.3424 THE RAM 0.0000
-1.0414 THE TIME? 0.0000
-0.3010 TIME IT 0.0000
-0.3010 TIME? </s> -0.3010
-0.3010 TO KNOW 0.0000
-0.3010 TODAY DATE? 0.0000
-0.3802 TODAY'S DATE? 0.0000
-1.0792 TODAY'S DAY -0.1249
-0.4771 TOOL </s> -0.3010
-0.7782 TOOL PLEASE -0.0248
-0.6990 TOTAL FREE 0.0000
-1.0000 TOTAL HARD 0.0000
-0.6990 TOTAL SPACE 0.0000
-0.4771 TWITTER </s> -0.3010
-0.7782 TWITTER PLEASE -0.0248
-0.4771 UP </s> -0.3010
-0.7782 UP PLEASE -0.0248
-0.4771 VLC </s> -0.3010
-0.7782 VLC PLEASE -0.0248
-0.3010 WANT TO 0.0000
-1.0000 WHAT DATE -0.1249
-0.4559 WHAT IS 0.0000
-1.3010 WHAT TIME 0.0000
-0.3010 WHICH DAY -0.2218
-0.7782 WINDOWS FIREWALL 0.0000
-0.7782 WINDOWS MEDIA 0.0000
-0.7782 WINDOWS POWER -0.1761
-0.4771 WORD </s> -0.3010
-0.7782 WORD PLEASE -0.0248
-0.4771 WORDPAD </s> -0.3010
-0.7782 WORDPAD PLEASE -0.0248
-0.3010 YOU TELL 0.0000
-0.4771 YOUTUBE </s> -0.3010
-0.7782 YOUTUBE PLEASE -0.0248

\3-grams:
-0.3010 <s> CALCULATOR </s>
-0.3010 <s> CAN YOU
-0.3010 <s> CURRENT TIME?
-0.3010 <s> DATE </s>
-0.3010 <s> DAY </s>
-0.3010 <s> DEVICE MANAGER
-0.3010 <s> DISC CLEAN
-0.3010 <s> FACEBOOK </s>
-0.3010 <s> FREE SPACE
-0.3010 <s> GMAIL </s>
-0.3010 <s> GOOGLE </s>
-0.3010 <s> HARD DISK
-0.3010 <s> I WANT
-0.3010 <s> INTERNET EXPLORER
-0.3010 <s> MEMORY SIZE.
-1.2553 <s> MICROSOFT ACCESS
-1.2553 <s> MICROSOFT EXCEL
-1.2553 <s> MICROSOFT INFOPATH
-1.2553 <s> MICROSOFT ONENOTE
-1.2553 <s> MICROSOFT OUTLOOK
-1.2553 <s> MICROSOFT PICTURE
-1.2553 <s> MICROSOFT POWER
-1.2553 <s> MICROSOFT PUBLISHER
-1.2553 <s> MICROSOFT WORD
-0.3010 <s> MY COMPUTER
-0.3010 <s> NOTEPAD </s>
-0.3010 <s> ON SCREEN
-1.7993 <s> OPEN CALCULATOR
-1.7993 <s> OPEN DEVICE
-1.7993 <s> OPEN DISC
-1.7993 <s> OPEN FACEBOOK
-1.7993 <s> OPEN GMAIL
-1.7993 <s> OPEN GOOGLE
-1.7993 <s> OPEN INTERNET
-0.8451 <s> OPEN MICROSOFT
-1.7993 <s> OPEN MY
-1.7993 <s> OPEN NOTEPAD
-2.1004 <s> OPEN ON
-1.7993 <s> OPEN PAINT
-1.7993 <s> OPEN SNIPPING
-1.7993 <s> OPEN SOUND
-1.7993 <s> OPEN STACK
-1.6232 <s> OPEN SYSTEM
-1.7993 <s> OPEN TWITTER
-1.7993 <s> OPEN VLC
-1.2553 <s> OPEN WINDOWS
-1.7993 <s> OPEN WORDPAD
-1.7993 <s> OPEN YOUTUBE
-0.3010 <s> PAINT </s>
-0.3010 <s> PLEASE TELL
-0.3010 <s> RAM SIZE?
-0.3010 <s> SNIPPING TOOL
-0.3010 <s> SOUND RECORDER
-0.3010 <s> STACK OVER
-0.4771 <s> SYSTEM CONFIGURATION
-0.7782 <s> SYSTEM INFORMATION
-0.3010 <s> TELL ME
-0.3010 <s> TIME? </s>
-0.3010 <s> TODAY DATE?
-0.6021 <s> TODAY'S DATE?
-0.6021 <s> TODAY'S DAY
-0.6990 <s> TOTAL FREE
-1.0000 <s> TOTAL HARD
-0.6990 <s> TOTAL SPACE
-0.3010 <s> TWITTER </s>
-0.3010 <s> VLC </s>
-0.9542 <s> WHAT DATE
-0.4771 <s> WHAT IS
-1.2553 <s> WHAT TIME
-0.3010 <s> WHICH DAY
-0.6021 <s> WINDOWS FIREWALL
-0.6021 <s> WINDOWS POWER
-0.3010 <s> WORDPAD </s>
-0.3010 <s> YOUTUBE </s>
-0.3010 ACCESS PLEASE </s>
-0.3010 CALCULATOR PLEASE </s>
-0.3010 CAN YOU TELL
-0.4771 CLEAN UP </s>
-0.7782 CLEAN UP PLEASE
-0.3010 COMPUTER PLEASE </s>
-0.3010 COMPUTER RAM SIZE?
-0.3010 CONFIGURATION PLEASE </s>
-0.3010 CURRENT DATE? </s>
-0.3010 CURRENT DAY? </s>
-0.3010 CURRENT TIME? </s>
-0.3010 DATE IT IS?
-0.3010 DAY IT IS?
-0.4771 DEVICE MANAGER </s>
-0.7782 DEVICE MANAGER PLEASE
-0.3010 DISC CLEAN UP
-0.3010 DISK SIZE </s>
-0.3010 EXCEL PLEASE </s>
-0.3010 EXPLORER PLEASE </s>
-0.3010 FACEBOOK PLEASE </s>
-0.3010 FIREWALL PLEASE </s>
-0.3010 FLOW PLEASE </s>
-0.4771 FREE SPACE </s>
-0.7782 FREE SPACE OF
-0.3010 GMAIL PLEASE </s>
-0.3010 GOOGLE PLEASE </s>
-0.3010 HARD DISK SIZE
-0.3010 I WANT TO
-0.3010 INFOPATH PLEASE </s>
-0.3010 INFORMATION PLEASE </s>
-0.4771 INTERNET EXPLORER </s>
-0.7782 INTERNET EXPLORER PLEASE
-0.6021 IS MY MEMORY
-0.6021 IS MY RAM
-0.3010 IS RAM SIZE?
-0.6021 IS THE CURRENT
-0.6021 IS THE TIME?
-0.3010 IS TODAY'S DATE?
-0.3010 IT IS? </s>
-0.3010 KEYBOARD PLEASE </s>
-0.3010 KNOW THE TIME?
-0.3010 MANAGER PLEASE </s>
-0.3010 ME MY MEMORY
-0.5441 ME THE CURRENT
-0.8451 ME THE DATE?
-1.1461 ME THE DAY?
-0.3010 ME TODAY'S DATE?
-0.3010 ME WHAT IS
-0.6021 MEDIA PLAYER </s>
-0.6021 MEDIA PLAYER PLEASE
-0.3010 MEMORY SIZE. </s>
-0.3010 MEMORY SIZE? </s>
-0.4771 MICROSOFT ACCESS </s>
-0.7782 MICROSOFT ACCESS PLEASE
-0.4771 MICROSOFT EXCEL </s>
-0.7782 MICROSOFT EXCEL PLEASE
-0.4771 MICROSOFT INFOPATH </s>
-0.7782 MICROSOFT INFOPATH PLEASE
-0.4771 MICROSOFT ONENOTE </s>
-0.7782 MICROSOFT ONENOTE PLEASE
-0.4771 MICROSOFT OUTLOOK </s>
-0.7782 MICROSOFT OUTLOOK PLEASE
-0.3010 MICROSOFT PICTURE MANAGER
-0.3010 MICROSOFT POWER POINT
-0.4771 MICROSOFT PUBLISHER </s>
-0.7782 MICROSOFT PUBLISHER PLEASE
-0.4771 MICROSOFT WORD </s>
-0.7782 MICROSOFT WORD PLEASE
-0.4771 MY COMPUTER </s>
-1.0792 MY COMPUTER PLEASE
-1.0792 MY COMPUTER RAM
-0.3010 MY MEMORY SIZE?
-0.3010 MY RAM SIZE?
-0.3010 NOTEPAD PLEASE </s>
-0.3010 OF MY COMPUTER
-0.3010 ON SCREEN KEYBOARD
-0.3010 ONENOTE PLEASE </s>
-0.6021 OPEN CALCULATOR </s>
-0.6021 OPEN CALCULATOR PLEASE
-0.3010 OPEN DEVICE MANAGER
-0.3010 OPEN DISC CLEAN
-0.6021 OPEN FACEBOOK </s>
-0.6021 OPEN FACEBOOK PLEASE
-0.6021 OPEN GMAIL </s>
-0.6021 OPEN GMAIL PLEASE
-0.6021 OPEN GOOGLE </s>
-0.6021 OPEN GOOGLE PLEASE
-0.3010 OPEN INTERNET EXPLORER
-1.2553 OPEN MICROSOFT ACCESS
-1.2553 OPEN MICROSOFT EXCEL
-1.2553 OPEN MICROSOFT INFOPATH
-1.2553 OPEN MICROSOFT ONENOTE
-1.2553 OPEN MICROSOFT OUTLOOK
-1.2553 OPEN MICROSOFT PICTURE
-1.2553 OPEN MICROSOFT POWER
-1.2553 OPEN MICROSOFT PUBLISHER
-1.2553 OPEN MICROSOFT WORD
-0.3010 OPEN MY COMPUTER
-0.6021 OPEN NOTEPAD </s>
-0.6021 OPEN NOTEPAD PLEASE
-0.3010 OPEN ON SCREEN
-0.6021 OPEN PAINT </s>
-0.6021 OPEN PAINT PLEASE
-0.3010 OPEN SNIPPING TOOL
-0.3010 OPEN SOUND RECORDER
-0.3010 OPEN STACK OVER
-0.7782 OPEN SYSTEM CONFIGURATION
-0.4771 OPEN SYSTEM INFORMATION
-0.6021 OPEN TWITTER </s>
-0.6021 OPEN TWITTER PLEASE
-0.6021 OPEN VLC </s>
-0.6021 OPEN VLC PLEASE
-0.8451 OPEN WINDOWS FIREWALL
-0.6690 OPEN WINDOWS MEDIA
-0.8451 OPEN WINDOWS POWER
-0.6021 OPEN WORDPAD </s>
-0.6021 OPEN WORDPAD PLEASE
-0.6021 OPEN YOUTUBE </s>
-0.6021 OPEN YOUTUBE PLEASE
-0.3010 OUTLOOK PLEASE </s>
-0.4771 OVER FLOW </s>
-0.7782 OVER FLOW PLEASE
-0.3010 PAINT PLEASE </s>
-0.4771 PICTURE MANAGER </s>
-0.7782 PICTURE MANAGER PLEASE
-0.3010 PLAYER PLEASE </s>
-0.3010 PLEASE TELL ME
-0.3010 POINT PLEASE </s>
-0.4771 POWER POINT </s>
-0.7782 POWER POINT PLEASE
-0.4771 POWER SHELL </s>
-0.7782 POWER SHELL PLEASE
-0.3010 PUBLISHER PLEASE </s>
-0.3010 RAM SIZE? </s>
-0.3010 RECORDER PLEASE </s>
-0.4771 SCREEN KEYBOARD </s>
-0.7782 SCREEN KEYBOARD PLEASE
-0.3010 SHELL PLEASE </s>
-0.4771 SNIPPING TOOL </s>
-0.7782 SNIPPING TOOL PLEASE
-0.4771 SOUND RECORDER </s>
-0.7782 SOUND RECORDER PLEASE
-0.3010 SPACE OF MY
-0.3010 STACK OVER FLOW
-0.4771 SYSTEM CONFIGURATION </s>
-0.7782 SYSTEM CONFIGURATION PLEASE
-0.4771 SYSTEM INFORMATION </s>
-0.7782 SYSTEM INFORMATION PLEASE
-1.3424 TELL ME MY
-0.4973 TELL ME THE
-1.0414 TELL ME TODAY'S
-1.3424 TELL ME WHAT
-0.3010 TELL THE RAM
-1.0000 THE CURRENT DATE?
-1.0000 THE CURRENT DAY?
-0.5229 THE CURRENT TIME?
-0.3010 THE DATE? </s>
-0.3010 THE DAY? </s>
-0.3010 THE RAM SIZE?
-0.3010 THE TIME? </s>
-0.3010 TIME IT IS?
-0.3010 TO KNOW THE
-0.3010 TODAY DATE? </s>
-0.3010 TODAY'S DATE? </s>
-0.3010 TODAY'S DAY </s>
-0.3010 TOOL PLEASE </s>
-0.3010 TOTAL FREE SPACE
-0.3010 TOTAL HARD DISK
-0.6021 TOTAL SPACE </s>
-0.6021 TOTAL SPACE OF
-0.3010 TWITTER PLEASE </s>
-0.3010 UP PLEASE </s>
-0.3010 VLC PLEASE </s>
-0.3010 WANT TO KNOW
-0.3010 WHAT DATE IT
-0.8451 WHAT IS MY
-1.1461 WHAT IS RAM
-0.8451 WHAT IS THE
-0.8451 WHAT IS TODAY'S
-0.3010 WHAT TIME IT
-0.3010 WHICH DAY IT
-0.4771 WINDOWS FIREWALL </s>
-0.7782 WINDOWS FIREWALL PLEASE
-0.7782 WINDOWS MEDIA </s>
-0.4771 WINDOWS MEDIA PLAYER
-0.3010 WINDOWS POWER SHELL
-0.3010 WORD PLEASE </s>
-0.3010 WORDPAD PLEASE </s>
-0.3680 YOU TELL ME
-1.1461 YOU TELL THE
-0.3010 YOUTUBE PLEASE </s>

\end\